<?xml version="1.0"?>
    <BinaryTree type="DecisionTree" boostWeight="1.0000000000000000e+00" itree="339">
      <Node pos="s" depth="0" NCoef="0" IVar="0" Cut="8.0000000000000000e+00" cType="1" res="-1.9545146751065445e-12" rms="9.4395078718662262e-02" purity="0.0000000000000000e+00" nType="0">
        <Node pos="l" depth="1" NCoef="0" IVar="8" Cut="1.0000000000000000e+00" cType="1" res="1.6420732208644040e-05" rms="7.3930032551288605e-02" purity="0.0000000000000000e+00" nType="0">
          <Node pos="l" depth="2" NCoef="0" IVar="6" Cut="7.0000000000000000e+00" cType="1" res="0.0000000000000000e+00" rms="0.0000000000000000e+00" purity="0.0000000000000000e+00" nType="0">
            <Node pos="l" depth="3" NCoef="0" IVar="1" Cut="1.8200000000000000e+02" cType="1" res="0.0000000000000000e+00" rms="0.0000000000000000e+00" purity="0.0000000000000000e+00" nType="0">
              <Node pos="l" depth="4" NCoef="0" IVar="5" Cut="7.0000000000000000e+00" cType="1" res="-1.8087752323481254e-05" rms="1.0793346911668777e-01" purity="0.0000000000000000e+00" nType="0">
                <Node pos="l" depth="5" NCoef="0" IVar="-1" Cut="0.0000000000000000e+00" cType="1" res="-2.0871802064448275e-08" rms="1.0788100957870483e-01" purity="0.0000000000000000e+00" nType="-99"/>
                <Node pos="r" depth="5" NCoef="0" IVar="-1" Cut="0.0000000000000000e+00" cType="1" res="-3.0697186593897641e-04" rms="1.1650262027978897e-01" purity="0.0000000000000000e+00" nType="-99"/>
              </Node>
              <Node pos="r" depth="4" NCoef="0" IVar="4" Cut="5.0000000000000000e+00" cType="1" res="9.9003268405795097e-04" rms="6.6539965569972992e-02" purity="0.0000000000000000e+00" nType="0">
                <Node pos="l" depth="5" NCoef="0" IVar="-1" Cut="0.0000000000000000e+00" cType="1" res="1.8617707246448845e-04" rms="6.2839046120643616e-02" purity="0.0000000000000000e+00" nType="-99"/>
                <Node pos="r" depth="5" NCoef="0" IVar="-1" Cut="0.0000000000000000e+00" cType="1" res="-1.6312806110363454e-04" rms="7.6539047062397003e-02" purity="0.0000000000000000e+00" nType="-99"/>
              </Node>
            </Node>
            <Node pos="r" depth="3" NCoef="0" IVar="0" Cut="7.0000000000000000e+00" cType="1" res="2.0300575997680426e-03" rms="1.0369680821895599e-01" purity="0.0000000000000000e+00" nType="0">
              <Node pos="l" depth="4" NCoef="0" IVar="1" Cut="2.0000000000000000e+00" cType="1" res="-nan" rms="-nan" purity="0.0000000000000000e+00" nType="0">
                <Node pos="l" depth="5" NCoef="0" IVar="-1" Cut="0.0000000000000000e+00" cType="1" res="-6.9726924411952496e-03" rms="1.3310603797435760e-01" purity="0.0000000000000000e+00" nType="-99"/>
                <Node pos="r" depth="5" NCoef="0" IVar="-1" Cut="0.0000000000000000e+00" cType="1" res="1.8212238501291722e-04" rms="1.0342369973659515e-01" purity="0.0000000000000000e+00" nType="-99"/>
              </Node>
              <Node pos="r" depth="4" NCoef="0" IVar="5" Cut="5.0000000000000000e+00" cType="1" res="0.0000000000000000e+00" rms="4.3368754882812500e+03" purity="0.0000000000000000e+00" nType="0">
                <Node pos="l" depth="5" NCoef="0" IVar="-1" Cut="0.0000000000000000e+00" cType="1" res="8.1440350040793419e-03" rms="9.6755340695381165e-02" purity="0.0000000000000000e+00" nType="-99"/>
                <Node pos="r" depth="5" NCoef="0" IVar="-1" Cut="0.0000000000000000e+00" cType="1" res="2.8684937860816717e-03" rms="5.0355471670627594e-02" purity="0.0000000000000000e+00" nType="-99"/>
              </Node>
            </Node>
          </Node>
          <Node pos="r" depth="2" NCoef="0" IVar="4" Cut="4.0000000000000000e+00" cType="1" res="2.0540444438665872e-06" rms="3.6689761281013489e-01" purity="0.0000000000000000e+00" nType="0">
            <Node pos="l" depth="3" NCoef="0" IVar="1" Cut="1.8200000000000000e+02" cType="1" res="7.3713267920538783e-04" rms="5.3509303042048000e+14" purity="0.0000000000000000e+00" nType="0">
              <Node pos="l" depth="4" NCoef="0" IVar="0" Cut="7.0000000000000000e+00" cType="1" res="6.5216016082558781e-05" rms="9.6693471074104309e-02" purity="0.0000000000000000e+00" nType="0">
                <Node pos="l" depth="5" NCoef="0" IVar="-1" Cut="0.0000000000000000e+00" cType="1" res="-1.1250200681388378e-02" rms="1.1212769895792007e-01" purity="0.0000000000000000e+00" nType="-99"/>
                <Node pos="r" depth="5" NCoef="0" IVar="-1" Cut="0.0000000000000000e+00" cType="1" res="6.9380359491333365e-05" rms="9.6231371164321899e-02" purity="0.0000000000000000e+00" nType="-99"/>
              </Node>
              <Node pos="r" depth="4" NCoef="0" IVar="1" Cut="3.6200000000000000e+02" cType="1" res="0.0000000000000000e+00" rms="0.0000000000000000e+00" purity="0.0000000000000000e+00" nType="0">
                <Node pos="l" depth="5" NCoef="0" IVar="-1" Cut="0.0000000000000000e+00" cType="1" res="3.8406061939895153e-03" rms="6.5698973834514618e-02" purity="0.0000000000000000e+00" nType="-99"/>
                <Node pos="r" depth="5" NCoef="0" IVar="-1" Cut="0.0000000000000000e+00" cType="1" res="-1.0859705507755280e-03" rms="9.4829782843589783e-02" purity="0.0000000000000000e+00" nType="-99"/>
              </Node>
            </Node>
            <Node pos="r" depth="3" NCoef="0" IVar="4" Cut="6.0000000000000000e+00" cType="1" res="0.0000000000000000e+00" rms="0.0000000000000000e+00" purity="0.0000000000000000e+00" nType="0">
              <Node pos="l" depth="4" NCoef="0" IVar="0" Cut="7.0000000000000000e+00" cType="1" res="-4.0104323998093605e-03" rms="8.3222672343254089e-02" purity="0.0000000000000000e+00" nType="0">
                <Node pos="l" depth="5" NCoef="0" IVar="-1" Cut="0.0000000000000000e+00" cType="1" res="-1.6433241544291377e-03" rms="1.3490395247936249e-01" purity="0.0000000000000000e+00" nType="-99"/>
                <Node pos="r" depth="5" NCoef="0" IVar="-1" Cut="0.0000000000000000e+00" cType="1" res="-3.7767365574836731e-04" rms="8.1920623779296875e-02" purity="0.0000000000000000e+00" nType="-99"/>
              </Node>
              <Node pos="r" depth="4" NCoef="0" IVar="0" Cut="7.0000000000000000e+00" cType="1" res="1.9244356080889702e-02" rms="8.0943837761878967e-02" purity="0.0000000000000000e+00" nType="0">
                <Node pos="l" depth="5" NCoef="0" IVar="-1" Cut="0.0000000000000000e+00" cType="1" res="5.0216768868267536e-03" rms="0.0000000000000000e+00" purity="0.0000000000000000e+00" nType="-99"/>
                <Node pos="r" depth="5" NCoef="0" IVar="-1" Cut="0.0000000000000000e+00" cType="1" res="1.0148446308448911e-03" rms="9.0064398944377899e-02" purity="0.0000000000000000e+00" nType="-99"/>
              </Node>
            </Node>
          </Node>
        </Node>
        <Node pos="r" depth="1" NCoef="0" IVar="6" Cut="3.0000000000000000e+00" cType="1" res="-5.9517398767638952e-05" rms="5.3375359624624252e-02" purity="0.0000000000000000e+00" nType="0">
          <Node pos="l" depth="2" NCoef="0" IVar="1" Cut="1.6000000000000000e+01" cType="1" res="0.0000000000000000e+00" rms="0.0000000000000000e+00" purity="0.0000000000000000e+00" nType="0">
            <Node pos="l" depth="3" NCoef="0" IVar="8" Cut="1.0000000000000000e+00" cType="1" res="2.4990117526613176e-04" rms="2.5947799906134605e-02" purity="0.0000000000000000e+00" nType="0">
              <Node pos="l" depth="4" NCoef="0" IVar="7" Cut="1.0000000000000000e+00" cType="1" res="-1.5331662143580616e-04" rms="1.5937937423586845e-02" purity="0.0000000000000000e+00" nType="0">
                <Node pos="l" depth="5" NCoef="0" IVar="-1" Cut="0.0000000000000000e+00" cType="1" res="9.4613968394696712e-04" rms="6.1088863760232925e-02" purity="0.0000000000000000e+00" nType="-99"/>
                <Node pos="r" depth="5" NCoef="0" IVar="-1" Cut="0.0000000000000000e+00" cType="1" res="-1.2592654093168676e-04" rms="8.7600864470005035e-02" purity="0.0000000000000000e+00" nType="-99"/>
              </Node>
              <Node pos="r" depth="4" NCoef="0" IVar="0" Cut="1.1000000000000000e+01" cType="1" res="-1.2880851281806827e-03" rms="7.7083960175514221e-02" purity="0.0000000000000000e+00" nType="0">
                <Node pos="l" depth="5" NCoef="0" IVar="-1" Cut="0.0000000000000000e+00" cType="1" res="6.2505801906809211e-04" rms="8.2887694239616394e-02" purity="0.0000000000000000e+00" nType="-99"/>
                <Node pos="r" depth="5" NCoef="0" IVar="-1" Cut="0.0000000000000000e+00" cType="1" res="-3.4927157685160637e-04" rms="7.5159452855587006e-02" purity="0.0000000000000000e+00" nType="-99"/>
              </Node>
            </Node>
            <Node pos="r" depth="3" NCoef="0" IVar="0" Cut="1.5000000000000000e+01" cType="1" res="-2.0588628831319511e-04" rms="4.9889136105775833e-02" purity="0.0000000000000000e+00" nType="0">
              <Node pos="l" depth="4" NCoef="0" IVar="1" Cut="1.1600000000000000e+02" cType="1" res="0.0000000000000000e+00" rms="0.0000000000000000e+00" purity="0.0000000000000000e+00" nType="0">
                <Node pos="l" depth="5" NCoef="0" IVar="-1" Cut="0.0000000000000000e+00" cType="1" res="1.5145345241762698e-04" rms="6.3632555305957794e-02" purity="0.0000000000000000e+00" nType="-99"/>
                <Node pos="r" depth="5" NCoef="0" IVar="-1" Cut="0.0000000000000000e+00" cType="1" res="-1.4210674271453172e-04" rms="3.8462210446596146e-02" purity="0.0000000000000000e+00" nType="-99"/>
              </Node>
              <Node pos="r" depth="4" NCoef="0" IVar="1" Cut="4.8000000000000000e+01" cType="1" res="0.0000000000000000e+00" rms="0.0000000000000000e+00" purity="0.0000000000000000e+00" nType="0">
                <Node pos="l" depth="5" NCoef="0" IVar="-1" Cut="0.0000000000000000e+00" cType="1" res="-3.2716890564188361e-04" rms="4.9166984856128693e-02" purity="0.0000000000000000e+00" nType="-99"/>
                <Node pos="r" depth="5" NCoef="0" IVar="-1" Cut="0.0000000000000000e+00" cType="1" res="-1.1480408829811495e-05" rms="3.0396329239010811e-02" purity="0.0000000000000000e+00" nType="-99"/>
              </Node>
            </Node>
          </Node>
          <Node pos="r" depth="2" NCoef="0" IVar="5" Cut="7.0000000000000000e+00" cType="1" res="-2.7428544126451015e-04" rms="5.1647264510393143e-02" purity="0.0000000000000000e+00" nType="0">
            <Node pos="l" depth="3" NCoef="0" IVar="8" Cut="1.0000000000000000e+00" cType="1" res="-1.0907553223660216e-04" rms="2.8641469776630402e-02" purity="0.0000000000000000e+00" nType="0">
              <Node pos="l" depth="4" NCoef="0" IVar="0" Cut="1.6000000000000000e+01" cType="1" res="-5.3128780564293265e-04" rms="5.9787761420011520e-02" purity="0.0000000000000000e+00" nType="0">
                <Node pos="l" depth="5" NCoef="0" IVar="-1" Cut="0.0000000000000000e+00" cType="1" res="-1.0777423449326307e-04" rms="6.6677287220954895e-02" purity="0.0000000000000000e+00" nType="-99"/>
                <Node pos="r" depth="5" NCoef="0" IVar="-1" Cut="0.0000000000000000e+00" cType="1" res="3.2730029488448054e-05" rms="4.6951156109571457e-02" purity="0.0000000000000000e+00" nType="-99"/>
              </Node>
              <Node pos="r" depth="4" NCoef="0" IVar="6" Cut="5.0000000000000000e+00" cType="1" res="5.4885633289813995e-04" rms="5.8652658015489578e-02" purity="0.0000000000000000e+00" nType="0">
                <Node pos="l" depth="5" NCoef="0" IVar="-1" Cut="0.0000000000000000e+00" cType="1" res="2.5470869150012732e-04" rms="6.6251471638679504e-02" purity="0.0000000000000000e+00" nType="-99"/>
                <Node pos="r" depth="5" NCoef="0" IVar="-1" Cut="0.0000000000000000e+00" cType="1" res="-3.4435772249707952e-05" rms="6.6504791378974915e-02" purity="0.0000000000000000e+00" nType="-99"/>
              </Node>
            </Node>
            <Node pos="r" depth="3" NCoef="0" IVar="1" Cut="4.2000000000000000e+01" cType="1" res="0.0000000000000000e+00" rms="0.0000000000000000e+00" purity="0.0000000000000000e+00" nType="0">
              <Node pos="l" depth="4" NCoef="0" IVar="1" Cut="3.1000000000000000e+01" cType="1" res="2.8729386627674103e-02" rms="-nan" purity="0.0000000000000000e+00" nType="0">
                <Node pos="l" depth="5" NCoef="0" IVar="-1" Cut="0.0000000000000000e+00" cType="1" res="-1.0592272883513942e-04" rms="7.6711274683475494e-02" purity="0.0000000000000000e+00" nType="-99"/>
                <Node pos="r" depth="5" NCoef="0" IVar="-1" Cut="0.0000000000000000e+00" cType="1" res="-2.6320130564272404e-03" rms="5.9938918799161911e-02" purity="0.0000000000000000e+00" nType="-99"/>
              </Node>
              <Node pos="r" depth="4" NCoef="0" IVar="1" Cut="1.8900000000000000e+02" cType="1" res="0.0000000000000000e+00" rms="0.0000000000000000e+00" purity="0.0000000000000000e+00" nType="0">
                <Node pos="l" depth="5" NCoef="0" IVar="-1" Cut="0.0000000000000000e+00" cType="1" res="1.6184069681912661e-03" rms="6.3992805778980255e-02" purity="0.0000000000000000e+00" nType="-99"/>
                <Node pos="r" depth="5" NCoef="0" IVar="-1" Cut="0.0000000000000000e+00" cType="1" res="2.4069452774710953e-04" rms="3.4030072391033173e-02" purity="0.0000000000000000e+00" nType="-99"/>
              </Node>
            </Node>
          </Node>
        </Node>
      </Node>
    </BinaryTree>
