<?xml version="1.0"?>
    <BinaryTree type="DecisionTree" boostWeight="1.0000000000000000e+00" itree="395">
      <Node pos="s" depth="0" NCoef="0" IVar="1" Cut="1.0000000000000000e+01" cType="1" res="6.8387592168370532e+26" rms="-nan" purity="0.0000000000000000e+00" nType="0">
        <Node pos="l" depth="1" NCoef="0" IVar="1" Cut="9.0000000000000000e+00" cType="1" res="1.1534257646417245e-04" rms="9.2949777841567993e-02" purity="0.0000000000000000e+00" nType="0">
          <Node pos="l" depth="2" NCoef="0" IVar="6" Cut="4.0000000000000000e+00" cType="1" res="4.4535707274917513e-05" rms="9.1377578675746918e-02" purity="0.0000000000000000e+00" nType="0">
            <Node pos="l" depth="3" NCoef="0" IVar="4" Cut="4.0000000000000000e+00" cType="1" res="-5.3823430789634585e-04" rms="7.7160052955150604e-02" purity="0.0000000000000000e+00" nType="0">
              <Node pos="l" depth="4" NCoef="0" IVar="0" Cut="2.0000000000000000e+00" cType="1" res="3.4469338133931160e-03" rms="1.0040483623743057e-01" purity="0.0000000000000000e+00" nType="0">
                <Node pos="l" depth="5" NCoef="0" IVar="-1" Cut="0.0000000000000000e+00" cType="1" res="4.7536534257233143e-03" rms="1.2939846515655518e-01" purity="0.0000000000000000e+00" nType="-99"/>
                <Node pos="r" depth="5" NCoef="0" IVar="-1" Cut="0.0000000000000000e+00" cType="1" res="2.6125067961402237e-04" rms="9.9586881697177887e-02" purity="0.0000000000000000e+00" nType="-99"/>
              </Node>
              <Node pos="r" depth="4" NCoef="0" IVar="5" Cut="3.0000000000000000e+00" cType="1" res="-9.2911254614591599e-04" rms="7.6147221028804779e-02" purity="0.0000000000000000e+00" nType="0">
                <Node pos="l" depth="5" NCoef="0" IVar="-1" Cut="0.0000000000000000e+00" cType="1" res="-2.6038652285933495e-03" rms="9.3192778527736664e-02" purity="0.0000000000000000e+00" nType="-99"/>
                <Node pos="r" depth="5" NCoef="0" IVar="-1" Cut="0.0000000000000000e+00" cType="1" res="-7.7804834290873259e-05" rms="9.3897737562656403e-02" purity="0.0000000000000000e+00" nType="-99"/>
              </Node>
            </Node>
            <Node pos="r" depth="3" NCoef="0" IVar="4" Cut="3.0000000000000000e+00" cType="1" res="1.6160620725713670e-04" rms="9.4004556536674500e-02" purity="0.0000000000000000e+00" nType="0">
              <Node pos="l" depth="4" NCoef="0" IVar="0" Cut="6.0000000000000000e+00" cType="1" res="1.2129114940762520e-02" rms="9.3041680753231049e-02" purity="0.0000000000000000e+00" nType="0">
                <Node pos="l" depth="5" NCoef="0" IVar="-1" Cut="0.0000000000000000e+00" cType="1" res="2.0869227591902018e-03" rms="1.0101973265409470e-01" purity="0.0000000000000000e+00" nType="-99"/>
                <Node pos="r" depth="5" NCoef="0" IVar="-1" Cut="0.0000000000000000e+00" cType="1" res="-8.5951056098565459e-04" rms="6.6143929958343506e-02" purity="0.0000000000000000e+00" nType="-99"/>
              </Node>
              <Node pos="r" depth="4" NCoef="0" IVar="4" Cut="4.0000000000000000e+00" cType="1" res="-1.0831225154106505e-05" rms="8.7187081575393677e-02" purity="0.0000000000000000e+00" nType="0">
                <Node pos="l" depth="5" NCoef="0" IVar="-1" Cut="0.0000000000000000e+00" cType="1" res="-1.3976689660921693e-04" rms="1.2548537552356720e-01" purity="0.0000000000000000e+00" nType="-99"/>
                <Node pos="r" depth="5" NCoef="0" IVar="-1" Cut="0.0000000000000000e+00" cType="1" res="2.5690676920930855e-05" rms="9.7758337855339050e-02" purity="0.0000000000000000e+00" nType="-99"/>
              </Node>
            </Node>
          </Node>
          <Node pos="r" depth="2" NCoef="0" IVar="6" Cut="4.0000000000000000e+00" cType="1" res="1.3798078289255500e-03" rms="7.6242126524448395e-02" purity="0.0000000000000000e+00" nType="0">
            <Node pos="l" depth="3" NCoef="0" IVar="0" Cut="4.0000000000000000e+00" cType="1" res="4.3360674753785133e-03" rms="8.3015494048595428e-02" purity="0.0000000000000000e+00" nType="0">
              <Node pos="l" depth="4" NCoef="0" IVar="6" Cut="3.0000000000000000e+00" cType="1" res="0.0000000000000000e+00" rms="0.0000000000000000e+00" purity="0.0000000000000000e+00" nType="0">
                <Node pos="l" depth="5" NCoef="0" IVar="-1" Cut="0.0000000000000000e+00" cType="1" res="9.3182930722832680e-03" rms="4.9132078886032104e-02" purity="0.0000000000000000e+00" nType="-99"/>
                <Node pos="r" depth="5" NCoef="0" IVar="-1" Cut="0.0000000000000000e+00" cType="1" res="2.1928830537945032e-03" rms="1.6256479918956757e-01" purity="0.0000000000000000e+00" nType="-99"/>
              </Node>
              <Node pos="r" depth="4" NCoef="0" IVar="0" Cut="1.3000000000000000e+01" cType="1" res="1.4347921824082732e-03" rms="7.3211632668972015e-02" purity="0.0000000000000000e+00" nType="0">
                <Node pos="l" depth="5" NCoef="0" IVar="-1" Cut="0.0000000000000000e+00" cType="1" res="-5.0659233238548040e-04" rms="8.2061216235160828e-02" purity="0.0000000000000000e+00" nType="-99"/>
                <Node pos="r" depth="5" NCoef="0" IVar="-1" Cut="0.0000000000000000e+00" cType="1" res="4.4511110172607005e-04" rms="6.8510279059410095e-02" purity="0.0000000000000000e+00" nType="-99"/>
              </Node>
            </Node>
            <Node pos="r" depth="3" NCoef="0" IVar="0" Cut="3.0000000000000000e+00" cType="1" res="3.8955655327299610e-05" rms="9.2925421893596649e-02" purity="0.0000000000000000e+00" nType="0">
              <Node pos="l" depth="4" NCoef="0" IVar="5" Cut="5.0000000000000000e+00" cType="1" res="6.8796753112110309e-06" rms="-nan" purity="0.0000000000000000e+00" nType="0">
                <Node pos="l" depth="5" NCoef="0" IVar="-1" Cut="0.0000000000000000e+00" cType="1" res="-2.1080349688418210e-04" rms="1.2471707910299301e-01" purity="0.0000000000000000e+00" nType="-99"/>
                <Node pos="r" depth="5" NCoef="0" IVar="-1" Cut="0.0000000000000000e+00" cType="1" res="-2.0100498571991920e-02" rms="5.4909247905015945e-02" purity="0.0000000000000000e+00" nType="-99"/>
              </Node>
              <Node pos="r" depth="4" NCoef="0" IVar="4" Cut="7.0000000000000000e+00" cType="1" res="2.2294314112514257e-03" rms="7.0388585329055786e-02" purity="0.0000000000000000e+00" nType="0">
                <Node pos="l" depth="5" NCoef="0" IVar="-1" Cut="0.0000000000000000e+00" cType="1" res="7.6099167927168310e-05" rms="8.3240658044815063e-02" purity="0.0000000000000000e+00" nType="-99"/>
                <Node pos="r" depth="5" NCoef="0" IVar="-1" Cut="0.0000000000000000e+00" cType="1" res="8.5579650476574898e-03" rms="1.2809342145919800e-01" purity="0.0000000000000000e+00" nType="-99"/>
              </Node>
            </Node>
          </Node>
        </Node>
        <Node pos="r" depth="1" NCoef="0" IVar="1" Cut="1.1000000000000000e+01" cType="1" res="0.0000000000000000e+00" rms="0.0000000000000000e+00" purity="0.0000000000000000e+00" nType="0">
          <Node pos="l" depth="2" NCoef="0" IVar="4" Cut="7.0000000000000000e+00" cType="1" res="-5.3455249872058630e-04" rms="1.1637756228446960e-01" purity="0.0000000000000000e+00" nType="0">
            <Node pos="l" depth="3" NCoef="0" IVar="6" Cut="6.0000000000000000e+00" cType="1" res="-6.0647405916824937e-04" rms="1.1735794693231583e-01" purity="0.0000000000000000e+00" nType="0">
              <Node pos="l" depth="4" NCoef="0" IVar="5" Cut="3.0000000000000000e+00" cType="1" res="-7.0433015935122967e-04" rms="1.1590306460857391e-01" purity="0.0000000000000000e+00" nType="0">
                <Node pos="l" depth="5" NCoef="0" IVar="-1" Cut="0.0000000000000000e+00" cType="1" res="2.7063791640102863e-03" rms="1.3698056340217590e-01" purity="0.0000000000000000e+00" nType="-99"/>
                <Node pos="r" depth="5" NCoef="0" IVar="-1" Cut="0.0000000000000000e+00" cType="1" res="-1.2343049456831068e-04" rms="1.1986745148897171e-01" purity="0.0000000000000000e+00" nType="-99"/>
              </Node>
              <Node pos="r" depth="4" NCoef="0" IVar="0" Cut="2.0000000000000000e+00" cType="1" res="1.0114355012774467e-02" rms="1.4258152246475220e-01" purity="0.0000000000000000e+00" nType="0">
                <Node pos="l" depth="5" NCoef="0" IVar="-1" Cut="0.0000000000000000e+00" cType="1" res="4.9505955539643764e-03" rms="2.6065731048583984e-01" purity="0.0000000000000000e+00" nType="-99"/>
                <Node pos="r" depth="5" NCoef="0" IVar="-1" Cut="0.0000000000000000e+00" cType="1" res="5.6289328495040536e-04" rms="1.2128948420286179e-01" purity="0.0000000000000000e+00" nType="-99"/>
              </Node>
            </Node>
            <Node pos="r" depth="3" NCoef="0" IVar="0" Cut="1.4000000000000000e+01" cType="1" res="-5.2805885672569275e-02" rms="8.4382571280002594e-02" purity="0.0000000000000000e+00" nType="0">
              <Node pos="l" depth="4" NCoef="0" IVar="0" Cut="5.0000000000000000e+00" cType="1" res="-1.3404519855976105e-01" rms="4.8955522477626801e-02" purity="0.0000000000000000e+00" nType="0">
                <Node pos="l" depth="5" NCoef="0" IVar="-1" Cut="0.0000000000000000e+00" cType="1" res="-1.5952978283166885e-02" rms="2.1178694441914558e-02" purity="0.0000000000000000e+00" nType="-99"/>
                <Node pos="r" depth="5" NCoef="0" IVar="-1" Cut="0.0000000000000000e+00" cType="1" res="-8.5058724507689476e-03" rms="4.9932152032852173e-02" purity="0.0000000000000000e+00" nType="-99"/>
              </Node>
              <Node pos="r" depth="4" NCoef="0" IVar="0" Cut="2.2000000000000000e+01" cType="1" res="-3.6406941944733262e-04" rms="5.6207127869129181e-02" purity="0.0000000000000000e+00" nType="0">
                <Node pos="l" depth="5" NCoef="0" IVar="-1" Cut="0.0000000000000000e+00" cType="1" res="-1.3593527255579829e-03" rms="6.0866236686706543e-02" purity="0.0000000000000000e+00" nType="-99"/>
                <Node pos="r" depth="5" NCoef="0" IVar="-1" Cut="0.0000000000000000e+00" cType="1" res="3.4861627500504255e-03" rms="0.0000000000000000e+00" purity="0.0000000000000000e+00" nType="-99"/>
              </Node>
            </Node>
          </Node>
          <Node pos="r" depth="2" NCoef="0" IVar="1" Cut="1.2000000000000000e+01" cType="1" res="0.0000000000000000e+00" rms="0.0000000000000000e+00" purity="0.0000000000000000e+00" nType="0">
            <Node pos="l" depth="3" NCoef="0" IVar="0" Cut="3.0000000000000000e+00" cType="1" res="1.0165880667045712e-03" rms="7.6664917171001434e-02" purity="0.0000000000000000e+00" nType="0">
              <Node pos="l" depth="4" NCoef="0" IVar="6" Cut="6.0000000000000000e+00" cType="1" res="0.0000000000000000e+00" rms="0.0000000000000000e+00" purity="0.0000000000000000e+00" nType="0">
                <Node pos="l" depth="5" NCoef="0" IVar="-1" Cut="0.0000000000000000e+00" cType="1" res="-1.3044564984738827e-03" rms="1.2307708710432053e-01" purity="0.0000000000000000e+00" nType="-99"/>
                <Node pos="r" depth="5" NCoef="0" IVar="-1" Cut="0.0000000000000000e+00" cType="1" res="-2.3403814062476158e-02" rms="1.6980403661727905e-01" purity="0.0000000000000000e+00" nType="-99"/>
              </Node>
              <Node pos="r" depth="4" NCoef="0" IVar="0" Cut="4.0000000000000000e+00" cType="1" res="1.8929353682324290e-03" rms="7.3036551475524902e-02" purity="0.0000000000000000e+00" nType="0">
                <Node pos="l" depth="5" NCoef="0" IVar="-1" Cut="0.0000000000000000e+00" cType="1" res="3.3016218803822994e-03" rms="1.4872634410858154e-01" purity="0.0000000000000000e+00" nType="-99"/>
                <Node pos="r" depth="5" NCoef="0" IVar="-1" Cut="0.0000000000000000e+00" cType="1" res="7.1352522354573011e-05" rms="6.8265423178672791e-02" purity="0.0000000000000000e+00" nType="-99"/>
              </Node>
            </Node>
            <Node pos="r" depth="3" NCoef="0" IVar="3" Cut="1.0000000000000000e+00" cType="1" res="-1.0119334774572053e-06" rms="6.1885174363851547e-02" purity="0.0000000000000000e+00" nType="0">
              <Node pos="l" depth="4" NCoef="0" IVar="1" Cut="1.6000000000000000e+01" cType="1" res="0.0000000000000000e+00" rms="0.0000000000000000e+00" purity="0.0000000000000000e+00" nType="0">
                <Node pos="l" depth="5" NCoef="0" IVar="-1" Cut="0.0000000000000000e+00" cType="1" res="-8.1371508713345975e-05" rms="9.2349275946617126e-02" purity="0.0000000000000000e+00" nType="-99"/>
                <Node pos="r" depth="5" NCoef="0" IVar="-1" Cut="0.0000000000000000e+00" cType="1" res="1.1850244845845737e-05" rms="9.1035425662994385e-02" purity="0.0000000000000000e+00" nType="-99"/>
              </Node>
              <Node pos="r" depth="4" NCoef="0" IVar="6" Cut="2.0000000000000000e+00" cType="1" res="-8.9330686023458838e-05" rms="8.9559607207775116e-02" purity="0.0000000000000000e+00" nType="0">
                <Node pos="l" depth="5" NCoef="0" IVar="-1" Cut="0.0000000000000000e+00" cType="1" res="7.7413023973349482e-05" rms="5.2743718028068542e-02" purity="0.0000000000000000e+00" nType="-99"/>
                <Node pos="r" depth="5" NCoef="0" IVar="-1" Cut="0.0000000000000000e+00" cType="1" res="-1.9041193809243850e-05" rms="9.5637567341327667e-02" purity="0.0000000000000000e+00" nType="-99"/>
              </Node>
            </Node>
          </Node>
        </Node>
      </Node>
    </BinaryTree>
