<?xml version="1.0"?>
    <BinaryTree type="DecisionTree" boostWeight="1.0000000000000000e+00" itree="116">
      <Node pos="s" depth="0" NCoef="0" IVar="2" Cut="1.0000000000000000e+00" cType="1" res="0.0000000000000000e+00" rms="0.0000000000000000e+00" purity="0.0000000000000000e+00" nType="0">
        <Node pos="l" depth="1" NCoef="0" IVar="7" Cut="7.0000000000000000e+00" cType="1" res="-1.6730381175875664e-03" rms="4.2099907994270325e-02" purity="0.0000000000000000e+00" nType="0">
          <Node pos="l" depth="2" NCoef="0" IVar="6" Cut="4.0000000000000000e+00" cType="1" res="-1.5073752729222178e-03" rms="4.1535943746566772e-02" purity="0.0000000000000000e+00" nType="0">
            <Node pos="l" depth="3" NCoef="0" IVar="0" Cut="7.0000000000000000e+00" cType="1" res="4.2542759329080582e-03" rms="6.6806912422180176e-02" purity="0.0000000000000000e+00" nType="0">
              <Node pos="l" depth="4" NCoef="0" IVar="5" Cut="5.0000000000000000e+00" cType="1" res="-4.2606357485055923e-02" rms="6.2883004546165466e-02" purity="0.0000000000000000e+00" nType="0">
                <Node pos="l" depth="5" NCoef="0" IVar="-1" Cut="0.0000000000000000e+00" cType="1" res="-4.1050021536648273e-03" rms="4.4698037207126617e-02" purity="0.0000000000000000e+00" nType="-99"/>
                <Node pos="r" depth="5" NCoef="0" IVar="-1" Cut="0.0000000000000000e+00" cType="1" res="-7.0979846641421318e-03" rms="7.6965071260929108e-02" purity="0.0000000000000000e+00" nType="-99"/>
              </Node>
              <Node pos="r" depth="4" NCoef="0" IVar="7" Cut="3.0000000000000000e+00" cType="1" res="6.9085264112800360e-04" rms="3.1513605266809464e-02" purity="0.0000000000000000e+00" nType="0">
                <Node pos="l" depth="5" NCoef="0" IVar="-1" Cut="0.0000000000000000e+00" cType="1" res="7.1443925844505429e-04" rms="5.4915342479944229e-02" purity="0.0000000000000000e+00" nType="-99"/>
                <Node pos="r" depth="5" NCoef="0" IVar="-1" Cut="0.0000000000000000e+00" cType="1" res="2.9646803159266710e-03" rms="6.8317070603370667e-02" purity="0.0000000000000000e+00" nType="-99"/>
              </Node>
            </Node>
            <Node pos="r" depth="3" NCoef="0" IVar="5" Cut="7.0000000000000000e+00" cType="1" res="-2.7882147696800530e-04" rms="4.2622942477464676e-02" purity="0.0000000000000000e+00" nType="0">
              <Node pos="l" depth="4" NCoef="0" IVar="5" Cut="4.0000000000000000e+00" cType="1" res="-6.9835485192015767e-05" rms="4.2432624846696854e-02" purity="0.0000000000000000e+00" nType="0">
                <Node pos="l" depth="5" NCoef="0" IVar="-1" Cut="0.0000000000000000e+00" cType="1" res="4.3520441977307200e-04" rms="8.0703392624855042e-02" purity="0.0000000000000000e+00" nType="-99"/>
                <Node pos="r" depth="5" NCoef="0" IVar="-1" Cut="0.0000000000000000e+00" cType="1" res="-5.1315024029463530e-04" rms="5.6532464921474457e-02" purity="0.0000000000000000e+00" nType="-99"/>
              </Node>
              <Node pos="r" depth="4" NCoef="0" IVar="9" Cut="1.0000000000000000e+00" cType="1" res="-1.9936810713261366e-03" rms="1.0431789793074131e-02" purity="0.0000000000000000e+00" nType="0">
                <Node pos="l" depth="5" NCoef="0" IVar="-1" Cut="0.0000000000000000e+00" cType="1" res="-6.8253241479396820e-03" rms="2.9030686244368553e-02" purity="0.0000000000000000e+00" nType="-99"/>
                <Node pos="r" depth="5" NCoef="0" IVar="-1" Cut="0.0000000000000000e+00" cType="1" res="-2.7028948068618774e-02" rms="0.0000000000000000e+00" purity="0.0000000000000000e+00" nType="-99"/>
              </Node>
            </Node>
          </Node>
          <Node pos="r" depth="2" NCoef="0" IVar="0" Cut="8.0000000000000000e+00" cType="1" res="-1.6701929271221161e-02" rms="5.0392061471939087e-02" purity="0.0000000000000000e+00" nType="0">
            <Node pos="l" depth="3" NCoef="0" IVar="0" Cut="5.0000000000000000e+00" cType="1" res="-1.2496983259916306e-01" rms="4.9015767872333527e-02" purity="0.0000000000000000e+00" nType="0">
              <Node pos="l" depth="4" NCoef="0" IVar="0" Cut="2.0000000000000000e+00" cType="1" res="-1.4418587088584900e-01" rms="4.1925497353076935e-02" purity="0.0000000000000000e+00" nType="0">
                <Node pos="l" depth="5" NCoef="0" IVar="-1" Cut="0.0000000000000000e+00" cType="1" res="-1.0837771929800510e-02" rms="2.1745022386312485e-02" purity="0.0000000000000000e+00" nType="-99"/>
                <Node pos="r" depth="5" NCoef="0" IVar="-1" Cut="0.0000000000000000e+00" cType="1" res="-1.7370849847793579e-02" rms="2.9805524274706841e-02" purity="0.0000000000000000e+00" nType="-99"/>
              </Node>
              <Node pos="r" depth="4" NCoef="0" IVar="3" Cut="1.0000000000000000e+00" cType="1" res="-7.2187207639217377e-02" rms="3.5334985703229904e-02" purity="0.0000000000000000e+00" nType="0">
                <Node pos="l" depth="5" NCoef="0" IVar="-1" Cut="0.0000000000000000e+00" cType="1" res="-1.0398831218481064e-02" rms="9.1841882094740868e-03" purity="0.0000000000000000e+00" nType="-99"/>
                <Node pos="r" depth="5" NCoef="0" IVar="-1" Cut="0.0000000000000000e+00" cType="1" res="-5.5204480886459351e-03" rms="1.9243197515606880e-02" purity="0.0000000000000000e+00" nType="-99"/>
              </Node>
            </Node>
            <Node pos="r" depth="3" NCoef="0" IVar="5" Cut="3.0000000000000000e+00" cType="1" res="-4.3056541471742094e-05" rms="1.2483712285757065e-02" purity="0.0000000000000000e+00" nType="0">
              <Node pos="l" depth="4" NCoef="0" IVar="1" Cut="1.0000000000000000e+00" cType="1" res="-2.2759594023227692e-02" rms="7.2100691497325897e-02" purity="0.0000000000000000e+00" nType="0">
                <Node pos="l" depth="5" NCoef="0" IVar="-1" Cut="0.0000000000000000e+00" cType="1" res="-2.1756432950496674e-02" rms="2.2124668583273888e-02" purity="0.0000000000000000e+00" nType="-99"/>
                <Node pos="r" depth="5" NCoef="0" IVar="-1" Cut="0.0000000000000000e+00" cType="1" res="-1.2616137973964214e-02" rms="0.0000000000000000e+00" purity="0.0000000000000000e+00" nType="-99"/>
              </Node>
              <Node pos="r" depth="4" NCoef="0" IVar="6" Cut="4.0000000000000000e+00" cType="1" res="2.5689845642773435e-05" rms="9.9314255639910698e-03" purity="0.0000000000000000e+00" nType="0">
                <Node pos="l" depth="5" NCoef="0" IVar="-1" Cut="0.0000000000000000e+00" cType="1" res="5.5976258590817451e-03" rms="1.2368934601545334e-01" purity="0.0000000000000000e+00" nType="-99"/>
                <Node pos="r" depth="5" NCoef="0" IVar="-1" Cut="0.0000000000000000e+00" cType="1" res="-1.3168279547244310e-03" rms="4.4765617698431015e-02" purity="0.0000000000000000e+00" nType="-99"/>
              </Node>
            </Node>
          </Node>
        </Node>
        <Node pos="r" depth="1" NCoef="0" IVar="3" Cut="1.0000000000000000e+00" cType="1" res="5.5121804507507477e-06" rms="5.4573453962802887e-02" purity="0.0000000000000000e+00" nType="0">
          <Node pos="l" depth="2" NCoef="0" IVar="2" Cut="2.0000000000000000e+00" cType="1" res="0.0000000000000000e+00" rms="0.0000000000000000e+00" purity="0.0000000000000000e+00" nType="0">
            <Node pos="l" depth="3" NCoef="0" IVar="6" Cut="4.0000000000000000e+00" cType="1" res="5.2051660604774952e-03" rms="8.9100100100040436e-02" purity="0.0000000000000000e+00" nType="0">
              <Node pos="l" depth="4" NCoef="0" IVar="7" Cut="7.0000000000000000e+00" cType="1" res="-1.0402835905551910e-02" rms="7.0758827030658722e-02" purity="0.0000000000000000e+00" nType="0">
                <Node pos="l" depth="5" NCoef="0" IVar="-1" Cut="0.0000000000000000e+00" cType="1" res="-2.6639595162123442e-03" rms="6.3170336186885834e-02" purity="0.0000000000000000e+00" nType="-99"/>
                <Node pos="r" depth="5" NCoef="0" IVar="-1" Cut="0.0000000000000000e+00" cType="1" res="1.8549831584095955e-02" rms="1.1778443306684494e-01" purity="0.0000000000000000e+00" nType="-99"/>
              </Node>
              <Node pos="r" depth="4" NCoef="0" IVar="7" Cut="6.0000000000000000e+00" cType="1" res="8.2966312766075134e-03" rms="9.2298008501529694e-02" purity="0.0000000000000000e+00" nType="0">
                <Node pos="l" depth="5" NCoef="0" IVar="-1" Cut="0.0000000000000000e+00" cType="1" res="1.4332560822367668e-03" rms="1.0355909168720245e-01" purity="0.0000000000000000e+00" nType="-99"/>
                <Node pos="r" depth="5" NCoef="0" IVar="-1" Cut="0.0000000000000000e+00" cType="1" res="-4.6389028429985046e-03" rms="8.0603279173374176e-02" purity="0.0000000000000000e+00" nType="-99"/>
              </Node>
            </Node>
            <Node pos="r" depth="3" NCoef="0" IVar="2" Cut="5.0000000000000000e+00" cType="1" res="0.0000000000000000e+00" rms="0.0000000000000000e+00" purity="0.0000000000000000e+00" nType="0">
              <Node pos="l" depth="4" NCoef="0" IVar="0" Cut="3.0000000000000000e+00" cType="1" res="-3.4949383698403835e-03" rms="7.1629777550697327e-02" purity="0.0000000000000000e+00" nType="0">
                <Node pos="l" depth="5" NCoef="0" IVar="-1" Cut="0.0000000000000000e+00" cType="1" res="-1.5498960856348276e-03" rms="1.0449900478124619e-01" purity="0.0000000000000000e+00" nType="-99"/>
                <Node pos="r" depth="5" NCoef="0" IVar="-1" Cut="0.0000000000000000e+00" cType="1" res="-6.4592881244607270e-05" rms="6.0946762561798096e-02" purity="0.0000000000000000e+00" nType="-99"/>
              </Node>
              <Node pos="r" depth="4" NCoef="0" IVar="2" Cut="1.3600000000000000e+02" cType="1" res="0.0000000000000000e+00" rms="0.0000000000000000e+00" purity="0.0000000000000000e+00" nType="0">
                <Node pos="l" depth="5" NCoef="0" IVar="-1" Cut="0.0000000000000000e+00" cType="1" res="5.6317323469556868e-05" rms="7.9631462693214417e-02" purity="0.0000000000000000e+00" nType="-99"/>
                <Node pos="r" depth="5" NCoef="0" IVar="-1" Cut="0.0000000000000000e+00" cType="1" res="-1.9037652236875147e-05" rms="7.6603025197982788e-02" purity="0.0000000000000000e+00" nType="-99"/>
              </Node>
            </Node>
          </Node>
          <Node pos="r" depth="2" NCoef="0" IVar="0" Cut="9.0000000000000000e+00" cType="1" res="-1.6556904301978648e-04" rms="7.4881441891193390e-02" purity="0.0000000000000000e+00" nType="0">
            <Node pos="l" depth="3" NCoef="0" IVar="5" Cut="2.0000000000000000e+00" cType="1" res="-3.2040195947047323e-05" rms="8.1443779170513153e-02" purity="0.0000000000000000e+00" nType="0">
              <Node pos="l" depth="4" NCoef="0" IVar="6" Cut="3.0000000000000000e+00" cType="1" res="-1.3717371970415115e-02" rms="9.0581022202968597e-02" purity="0.0000000000000000e+00" nType="0">
                <Node pos="l" depth="5" NCoef="0" IVar="-1" Cut="0.0000000000000000e+00" cType="1" res="-1.3229331001639366e-02" rms="7.0221848785877228e-02" purity="0.0000000000000000e+00" nType="-99"/>
                <Node pos="r" depth="5" NCoef="0" IVar="-1" Cut="0.0000000000000000e+00" cType="1" res="-1.3382843462750316e-03" rms="9.0495526790618896e-02" purity="0.0000000000000000e+00" nType="-99"/>
              </Node>
              <Node pos="r" depth="4" NCoef="0" IVar="7" Cut="7.0000000000000000e+00" cType="1" res="3.1014667911222205e-05" rms="8.2444496452808380e-02" purity="0.0000000000000000e+00" nType="0">
                <Node pos="l" depth="5" NCoef="0" IVar="-1" Cut="0.0000000000000000e+00" cType="1" res="-2.9408824957499746e-06" rms="8.1960074603557587e-02" purity="0.0000000000000000e+00" nType="-99"/>
                <Node pos="r" depth="5" NCoef="0" IVar="-1" Cut="0.0000000000000000e+00" cType="1" res="6.3480151584371924e-04" rms="1.2281259149312973e-01" purity="0.0000000000000000e+00" nType="-99"/>
              </Node>
            </Node>
            <Node pos="r" depth="3" NCoef="0" IVar="4" Cut="1.0000000000000000e+00" cType="1" res="-1.0378224396845326e-04" rms="1.9544808194041252e-02" purity="0.0000000000000000e+00" nType="0">
              <Node pos="l" depth="4" NCoef="0" IVar="7" Cut="3.0000000000000000e+00" cType="1" res="-3.0162523034960032e-04" rms="2.2472256794571877e-02" purity="0.0000000000000000e+00" nType="0">
                <Node pos="l" depth="5" NCoef="0" IVar="-1" Cut="0.0000000000000000e+00" cType="1" res="4.8746271204436198e-05" rms="5.0108216702938080e-02" purity="0.0000000000000000e+00" nType="-99"/>
                <Node pos="r" depth="5" NCoef="0" IVar="-1" Cut="0.0000000000000000e+00" cType="1" res="-2.1314960031304508e-04" rms="4.5597530901432037e-02" purity="0.0000000000000000e+00" nType="-99"/>
              </Node>
              <Node pos="r" depth="4" NCoef="0" IVar="8" Cut="1.0000000000000000e+00" cType="1" res="-5.1345699466764927e-04" rms="1.9614761695265770e-02" purity="0.0000000000000000e+00" nType="0">
                <Node pos="l" depth="5" NCoef="0" IVar="-1" Cut="0.0000000000000000e+00" cType="1" res="-2.5513581931591034e-04" rms="3.8638211786746979e-02" purity="0.0000000000000000e+00" nType="-99"/>
                <Node pos="r" depth="5" NCoef="0" IVar="-1" Cut="0.0000000000000000e+00" cType="1" res="4.4290209189057350e-04" rms="6.9940365850925446e-02" purity="0.0000000000000000e+00" nType="-99"/>
              </Node>
            </Node>
          </Node>
        </Node>
      </Node>
    </BinaryTree>
